{
  "layers": [
    {
      "activation": 1,
      "biases": [
        -0.3096744825738023,
        -0.12085214165712518,
        -0.17485099156346642
      ],
      "cols": 3,
      "rows": 12,
      "weights": [
        [
          8.78793329825635,
          -3.500444689049538,
          -4.179542107249134
        ],
        [
          0.04196256167585294,
          4.564820722499949,
          4.075930009016187
        ],
        [
          -0.329090941213266,
          4.659896950579401,
          2.4762515213927934
        ],
        [
          -5.814102038218673,
          -8.363656427524605,
          -2.467620248426008
        ],
        [
          3.0076127120948057,
          6.91989777535728,
          -3.546725454918797
        ],
        [
          -0.7530991657740547,
          5.886895631250496,
          -6.966789954260067
        ],
        [
          3.758089673850866,
          -0.9562357138179349,
          6.823732662292745
        ],
        [
          -1.6216034894022608,
          3.5670840986097514,
          5.29439127716252
        ],
        [
          -1.813607591956683,
          -3.82419355843616,
          -6.206461857709164
        ],
        [
          -7.1681317974959216,
          -3.883711202297757,
          -2.1045531091331884
        ],
        [
          -4.708958745484152,
          -0.8296692098329393,
          3.0598462440752474
        ],
        [
          6.3574905913457505,
          -5.582067277984839,
          1.954448834251334
        ]
      ]
    },
    {
      "activation": 1,
      "biases": [
        3.8202331130680665,
        10.296483196445944,
        4.043939660857776,
        4.386704800078921
      ],
      "cols": 4,
      "rows": 3,
      "weights": [
        [
          -10.968584851727783,
          -8.957704360948272,
          6.905167038133229,
          2.5923433358740113
        ],
        [
          -6.601645108203995,
          -1.913134481117214,
          -15.08588385627459,
          1.3126208158744586
        ],
        [
          10.029997535859271,
          -10.90114923926207,
          -2.1205838561114527,
          1.4619182967629396
        ]
      ]
    }
  ]
}
